-0.5864125412590258
-0.12739822313570404
0.7929105610359528
-0.32734439211302147
0.5481074533981589
0.1353111393430133
0.1592576976039819
0.694038671329819
0.6747595940876838
-0.046739516585016405
0.5692251500624594
0.1175049770602492
0.4507620580023384
0.4125189605720072
0.3692779239619983
0.3619935685216362
-0.8534270625477982
0.7712626489767194
0.9673582420817275
-0.8217849413295173
-0.077060498341468
0.5555223455573015
0.2885847854164061
0.4405849220836686
0.219097231748981
-0.2594265151627597
-0.12488548923229592
0.8379477559890363
-0.5085397332058887
-0.46571871932424647
0.8474324862130007
0.3313263685117538
-0.1104053518797552
-0.3103732171221978
0.19613724297983937
-0.7677639495751751
-0.6725927722104188
-0.10609809768988687
-0.5468579413882737
-0.48676029755165606
-0.5272987216749603
-0.5345315550937149
0.8216526557591985
0.16042210975725846
-0.11798142555992941
0.4711607551174035
-0.04396591782887782
0.35902025387477243
0.8933121731398239
-0.7968680116227511
-0.5985473945670685
0.7892644451546447
0.19089144916237677
0.16098394812145034
-0.6677875306732166
-0.1427980411832026
-0.2926681111684686
-0.6215079178079448
-0.5597594539291801
-0.7615873644153095
-0.6754724160548069
0.07421748916363424
-0.0842291724184594
-0.33680516399095595
-0.17070787735777304
0.8057425162965515
0.9663010314968266
0.37947101856885324
-0.3473872278006256
-0.49057650542602915
0.11176509912910504
-0.050941729631098775
-0.10302776673423297
0.9175649126600667
-0.03355552276470397
0.5624009651989228
0.5900042952912288
-0.5468239850311922
0.9399570927215988
-0.12763805369929093
-0.851563095446392
-0.10826599976809437
-0.9299338578904368
0.46190970004041887
0.44813774514464666
0.19302464766369964
0.8094067336604847
-0.9847380892785527
-0.16330865388824356
0.4610827274155338
0.0052295043989871726
0.39137616582564294
-0.40443662187716267
0.47156725945405675
0.9317817243885034
-0.8558513698989225
0.7403296879092764
0.278755152691017
0.9360454931696447
-0.7670260996680354
0.45390188015460375
0.6184040507224218
0.7571602692421386
-0.908085479555431
-0.09645517627769862
-0.9307281246448988
-0.1348005229247473
-0.12066292294431546
-0.031591343044304
0.9972117429552265
0.7695053746135043
0.5612005968064
0.7511607038759514
0.9188682895376461
-0.5923064819107839
0.25713144443912217
0.6438822043631347
0.023948127357171556
0.6741235353281356
0.38445453821872055
0.8720375404998986
0.1197997434025635
0.9532147577191463
0.3735676893955633
-0.8296749852704002
-0.22435643272305605
0.5765597494014174
-0.5215403410291608
-0.3691657875140735
-0.6508917077917995
-0.14209522651029416
0.16756835384820357
0.6860730466797638
-0.6444797714619828
-0.583998924364767
0.4855210160455421
-0.9769836310355469
0.520832743966376
0.21919365578035155
0.8888564318144156
-0.7822087871635377
0.19452837684065227
-0.2866757893197205
-0.563077737820511
0.8298860976058029
-0.40191207233629234
0.7582694626956357
0.9282593187395007
-0.2585271733670609
0.2113586331028412
0.013691981722459667
-0.7112408321133985
0.2654380526186877
0.04998312113008385
0.08461143422791073
0.6965304040134399
-0.6364438016511333
0.758855448861731
-0.8250075412576068
0.950316084671637
0.6737248430915403
0.346388501096037
-0.1239202364287153
-0.05111614742916282
0.4285622860621978
-0.13541728378180595
0.9972146221429443
0.36153784761693775
-0.031580169147990445
0.20308682268608402
-0.6765117769753022
-0.8557462443769621
0.3355123409329732
-0.7203950693484873
0.6179423435128284
0.8042800901592999
-0.5544816547565101
0.58635899714808
-0.5683875718100166
-0.5702808778010031
